15 32
1 6.89048306196041e-05 -0.0013260476546184648 0.0033066667043992006 -0.0028731428679921443 -0.0003565238744375252 -0.0008595714794604906 0.0022194286703736345 -0.0005253809395071585 -0.0006350000235432249 -0.0029956190839930926 0.0009184762020595372 -0.001373238039810704 -0.003254809477809994 0.000845142800937451 0.0030545238474760914 -0.00037128572529625324 0.0015733333892144618 0.0032461428809689268 0.005209238068865878 0.00045800001715265567 -0.001287619092701269 0.00013771425611117767 -0.0016152856696862727 0.0009514761158719747 0.003159666705566148 0.0027042380201497246 -0.0007480475666982654 -0.00016961914731100912 0.002010618987870181 0.00018009524016330639 0.001044952343883259 -0.0008358571323610487
2 -0.001731099911557976 0.0007674499356653541 0.0006952499992621597 0.001468799976282753 -0.0018635500920936466 -0.0013562500855186955 -0.0005082999367004958 0.001337949991284404 8.549999893148197e-05 -0.0031808000203454867 0.0011996500281384215 -0.001765349948345829 -0.001646099955542013 -0.0030461500165984033 0.0008383500098716468 -0.0007122000213712453 -0.00031964994268491865 0.002270499969017692 0.005927400011569261 -0.0008733500202652067 -0.00013460003247018905 0.0003664500138256699 -0.0010134499592822977 0.0017544499634823297 0.0040847000462235885 -0.0008476500865072012 0.0015978000239556423 0.0002381998987402767 0.003451899960055016 -0.0012745999643811955 0.0009679000329924747 0.00014394998433999717
3 0.0015918946423641358 -0.0013299999685075722 -0.004003684275391463 -0.0017478947595104966 -0.00018263154810196474 0.0030763157961988135 0.00040799992980043357 -0.00026236841413743893 0.0020567368666984534 9.26842300319358e-05 -0.0021784210104286964 -0.0025303684171950934 0.002219157770588553 0.00511284204424699 -0.0016119473760849551 0.0008793156808487287 -0.0012626841596915927 -0.0030653158166004638 0.00033436832018196583 0.0008954210628105916 0.001145315785451155 0.001643157936326277 -0.00016905269187286889 -0.0004521579187559454 0.0037637368904573747 0.007082473609204355 -0.0007830525711668949 -0.0031894210873073653 0.002146579015779456 -0.0009588947807634739 0.0004195263670561345 0.002115789537416085
4 -0.002908294080578558 0.004339411656153114 0.0016233529441866696 0.000792588186039425 -0.00046152946785749755 0.0010037057971417466 0.0024016470573876765 0.0007824117338339634 0.0002065294844642802 -0.0023087058729930397 -0.000710117634084514 -0.0013728822926650003 -0.0022546470178948608 -0.00016923533642993253 0.001278176492847064 0.0018228823661475496 -0.001382058732868994 0.0022808235097566947 0.004948411712094265 -5.588236073141589e-05 -0.0012832353275050135 0.002197941203656442 -1.0647093671757508e-05 0.0014058235178441357 0.0035854118793983668 -0.0009637059342554387 -0.001391823436065084 0.0003777646582902354 0.0008443529984694632 -0.0017754706478787258 0.004279941142372349 -0.0029964705258060027
5 -0.0005493749340530485 0.0006766875067114597 0.001736687419906957 -0.0006424375524147763 0.002016062514485384 0.0019831875833915547 -0.0013588750953203999 0.0008016874721761269 0.004123687482206151 -0.001684687517808925 0.00021468757131515304 -0.0044378749289535335 0.00040237492066808045 -7.287497282959521e-05 -0.004773124870553147 -0.002200687591539463 -0.0027998749501421116 0.003400312489247881 -0.0002087501052301377 -0.0017638749195612036 0.0008640624655527063 -0.0005421874175226549 -0.0012293749878153903 -0.0026393750886199996 0.0060234375996515155 0.006165937418700196 0.0024195001788029913 -0.002385624968155753 0.0034007499834842747 -0.001377500047965441 -0.0004929999413434416 0.0014386875336640514
6 -0.0022085623695602408 0.0014433749238378368 0.001328499957708118 -0.0002113125410687644 -0.0017795625162762008 0.000369562505511567 0.0004911875098514429 -0.0006594999758817721 -0.0008314999288359104 -0.0027490000175021123 -0.0025128750276053324 -0.0009551249505648229 -0.002782874995318707 0.0003884999896399677 0.0006171250279294327 -0.0006100000282458495 -0.0012854999586124904 0.0005050000399933197 0.004509999955189414 0.0008645624802738894 -0.0017108750580518972 0.001994687525439076 -0.0020647500441555167 0.003956312471018464 0.0022888750536367297 -0.0005135624942340655 0.0028657500879489817 -0.0006118125966168009 0.0014361875901158783 0.0012812499444407877 0.002211499981058296 -0.002585937407275196
7 -0.0027289999396695446 0.002410266571678221 0.0011215333157451822 0.001573466614354402 -0.0019012000566969315 0.0028745999676175415 0.0033522000017304284 -0.0007872000065011282 0.0012686000746422602 -0.0028725999989546837 0.0004214000228481988 -0.0001305999594478635 -0.0010652666523431739 -0.0011917333429058393 0.0019319333756963413 0.0023386000267540414 -0.0026847332095106444 0.0022856666473671794 0.004465666630615791 -0.0013545333582442253 -0.0020603333716280757 0.003490466674945007 -8.266671599509816e-05 0.0011267999584864204 0.0039007334504276513 -8.373336556057135e-05 0.0004941333958413452 0.0007660665937388937 0.0011031333783951898 -0.001047800035060694 0.0032984000165015457 -0.0015579332830384374
8 -0.001994999946743649 0.003802000021096319 -0.005259000044523938 -0.00032892846086594673 0.004084142856299877 -0.0002714286258976374 0.001786000077117933 0.0015247142166897123 -0.002431500079702736 -0.004436214321425983 0.003315928512685267 0.0004617857567999246 -0.003197071433532983 -0.002344857227788972 -0.0007387857102522892 3.978567630318659e-05 0.0011602143890091351 0.004537642862747556 0.0018287856198315109 0.0027000000035124166 -0.002264571496717898 0.0002377142767987347 0.0020204286057768123 0.0008392142928122277 0.0015259285989616597 -0.001084571421545531 -0.001349928676583139 -0.003101142871725772 -0.002605142766177388 0.002454071372215237 -0.0016556428391985329 0.0033651429444684516
9 -0.003354416684790825 -0.002342083326463277 -0.0024315000482602045 0.0027069999875190356 0.003809083301651602 0.005352833288876961 -0.0006037499794426063 0.0017502500074139486 -0.005110416629274066 0.002213916726759635 3.399992177340513e-05 -0.0013327500164450612 -0.0009784167559701018 -0.002806833324333032 0.001271916611585766 0.0037121666197587424 0.0036722501002562544 -0.0007576668285764754 -0.00030816680130859214 -0.004111166674798976 -0.0036906667082803324 0.0016882499912753701 -0.0029153332579880953 -0.004132083440102481 0.006066750114162763 0.005670000003495564 0.005656916745162259 0.0034866666889380817 -0.0004214999304773907 -0.0006934167079937955 -0.006655083352598012 0.0029568333411589265
10 -0.005265666724881157 -0.00037249995511956513 -0.004535833339711341 -0.0007656666760643324 0.004847916716244072 0.003355249975963185 0.0023576666450632424 0.0009833333218314995 -0.003400166635401547 0.0004808333518061166 0.003178500000406833 -0.0029743332888756413 -0.0008754167477794302 -0.0026479166699573398 -0.0002831667079590261 0.002823249980186423 0.0024935833838147423 0.00031691659629965824 0.001575083239004016 -0.002619583314905564 -0.0032214166809959957 9.750004392117262e-05 -0.0024766666271413365 -0.003841000063403044 0.0033010000673433146 0.0030416667383785048 0.0023725000016080835 -0.0010032499400646582 0.0017159166745841503 -0.0001275833674299065 -0.00552475006164362 0.005730250016010056
11 -0.002495285722294024 -0.0021782857199598637 -0.001425571515158351 -0.004940428579824844 0.005345142845596586 0.004926285756352756 0.0008237142381923539 0.0009765714920441887 -0.00024642858521214554 -0.003406285640916654 0.005649428667051585 -0.004672714257529671 -0.0009245716168412141 -0.0007394285972363182 -0.002642857127024659 -0.00047357139244143454 -0.0017815714070041264 -0.0019310001350407089 -0.0006857143515454871 -0.001841857048150684 -9.657136563743864e-05 0.0038311429088935256 -0.0019415715443236487 -0.0029875716261033502 0.005734142947143742 0.003921142779290676 0.005796571628057531 0.0007627143391541072 0.0028062857371488853 -0.002009000097002302 0.0023697143354054007 0.00850171419525785
12 0.0047493333695456386 0.00010083324741572142 0.0027526666720708213 -0.0005773333056519429 -0.0006808333952600757 0.00488616668250567 0.005170500022359192 0.008088833434158005 -0.004941166572583218 -0.00344066663334767 0.00021349991826961437 0.004538000068957142 -0.0023351666362335286 0.002300999864625434 -0.0025161667338882885 -0.000975999942359825 -0.005395333263246964 -0.0001868333686919262 0.003980833183353146 -0.0008034999870384733 0.001991999978296614 0.005860333292124172 0.0032656665425747633 -0.00031600000026325387 0.0020853333796064057 -0.0018561666365712881 0.002337000099942088 0.002928166787266188 -0.004626500109831492 -0.0013635000213980675 0.00038033328019082546 0.0035584999908072255
13 0.0048905000439845026 -0.0020925001008436084 -0.0013075002934783697 -0.002374249859713018 0.004648250120226294 -0.0021290001095621847 0.0015782501286594197 0.0026097501031472348 -0.007770249911118299 -0.0012802500277757645 0.007180249900557101 0.006769750067178393 -0.008440000005066395 -0.0010115002514794469 0.004267750133294612 -0.003077999921515584 -0.004684499966970179 -0.002787250094115734 -0.002764750155620277 -0.0010540001094341278 0.003984500144724734 0.007552749884780496 0.006102500017732382 -0.0003427501069381833 0.0024300001095980406 -0.0027069998905062675 0.004014000005554408 0.0014975000958656892 -0.0010470000561326742 0.004031750024296343 -0.00463600002694875 0.006908999901497737
14 0.0011256666233142216 -0.002984000059465567 -0.004065333555142085 0.002339666554083427 0.006071000127121806 0.002574333348699535 -0.0007119999888042609 0.003640999891407167 -0.004089333117008209 0.0021823332644999027 0.005032666648427646 -0.00011333322133092831 -0.00803433358669281 -0.003021666818919281 0.001936999848112464 -0.003877666468421618 -0.007879999893096587 -0.004085333552211523 -0.003000000026077032 -0.005210666606823604 0.002071000034144769 0.0053389999860276776 -0.005383333191275597 -0.004275666860242684 0.004076666819552581 0.008160999976098537 0.006993333576247096 0.00657766677128772 0.009043000017603239 -0.004896000182876985 -0.008349999940643707 0.011561666460086903
15 0.0036736667000999055 0.0013343333266675472 -0.0047316669176022215 2.533337101340294e-05 0.0012136667501181364 0.0017656665780426313 0.002284000162035227 0.004663333481100078 -0.00984166655689478 -0.0024513333725432553 0.007784333235273759 0.005547666655426535 -0.008171666723986467 0.00023833305264512697 0.0005383333967377742 -0.002692666525642077 -0.006308333288567762 -0.002046000057210525 -0.0020386668232580027 0.003217333306868871 0.0014453334151767194 0.007459999915833275 0.004448333444694678 0.0022806666480998197 0.007764333548645179 0.0012490001196662586 0.0009560000617057085 0.002147333463653922 0.0027206667388478913 0.0012939999190469582 -0.002912999906887611 0.007863999848874906
