93 32
</s> 0.012508 0.013811 -0.011970 -0.010244 0.004271 0.009441 0.002940 0.000660 -0.011261 0.006933 -0.013614 0.003905 -0.002348 -0.002991 -0.010362 -0.005882 0.008060 0.009454 0.009278 0.004992 0.004827 -0.011883 -0.012799 0.015530 0.011879 0.009656 -0.001887 0.012549 -0.001547 0.002296 -0.000466 -0.009323 
RAS 0.004101 -0.004179 -0.011954 0.014857 0.013685 -0.003422 -0.000707 0.001591 -0.011368 -0.012522 0.014234 0.000197 -0.008070 -0.009507 -0.009614 0.005303 0.000629 0.004159 -0.013167 -0.011899 -0.000406 0.003574 0.007968 -0.009906 0.012749 0.002897 0.003499 -0.001901 0.009333 -0.007149 -0.006555 0.006745 
FATAL -0.002354 0.003221 0.005639 -0.012777 -0.006197 0.009105 0.013225 0.012288 -0.009521 -0.006587 -0.002841 0.006255 -0.011839 0.009368 0.008712 -0.004997 -0.004848 -0.006995 0.013215 0.012225 -0.003687 0.013172 0.015063 0.005673 0.015572 -0.009722 -0.004786 -0.006586 -0.009085 0.008796 0.004935 0.001328 
ciod -0.006855 0.004762 0.009561 0.000605 0.007124 -0.015477 0.013484 0.001500 -0.005722 -0.006510 -0.002337 -0.009172 -0.013655 -0.008866 0.013366 -0.005531 -0.008373 0.007242 -0.005324 0.014864 -0.005014 -0.014340 0.008487 -0.000232 -0.010902 0.003049 0.004506 -0.001504 0.005701 -0.012368 0.002753 0.005677 
APP -0.009403 0.000444 -0.000190 -0.007497 -0.008852 -0.014668 0.000072 0.000477 0.000031 -0.012293 -0.015506 -0.014833 -0.013517 -0.001709 0.004348 0.003701 -0.009945 0.015619 -0.006286 -0.003980 -0.004389 0.014789 -0.011762 0.003628 -0.004173 0.009962 0.000127 0.013342 -0.008810 -0.008141 -0.013101 -0.011459 
INFO -0.009998 -0.009734 0.007638 -0.005834 0.008375 0.011531 0.004237 0.009221 0.007736 0.007314 -0.011096 -0.010728 -0.011427 -0.000412 0.012908 -0.008552 -0.009563 -0.013113 0.010331 -0.013059 -0.001810 0.006809 -0.014432 -0.013996 0.004509 0.011014 0.013326 0.006705 0.009882 -0.009774 -0.011376 0.012421 
or -0.008640 0.005479 0.001794 0.005595 -0.003695 0.000621 -0.005269 -0.003520 -0.013855 -0.010188 0.010892 0.003142 -0.007383 -0.004975 0.007796 -0.011039 -0.007229 0.014795 0.013276 -0.012372 0.002722 -0.007031 0.000476 0.009396 0.015144 0.006208 0.012853 0.009833 -0.000723 0.013984 0.007926 0.014817 
directory -0.005329 0.014833 0.013528 -0.004461 -0.013811 0.015102 0.002803 -0.006496 -0.002243 -0.002299 -0.012042 -0.004472 -0.001387 -0.015397 -0.010987 -0.003761 -0.002941 0.005594 0.002549 -0.001920 0.009207 0.004520 0.001712 0.011303 -0.003517 -0.004458 -0.001292 -0.008523 -0.009375 0.000633 0.013556 -0.004272 
such -0.000065 -0.012923 0.011590 -0.004751 0.009275 -0.007527 -0.002797 0.000294 0.011322 -0.000269 0.013852 -0.002321 0.006563 -0.000428 -0.012193 0.013283 0.003300 -0.009467 0.009400 -0.012952 -0.013605 0.010211 -0.010724 -0.008274 0.011024 0.010267 0.002141 0.014136 0.015177 0.012672 0.005515 -0.013595 
file 0.007153 -0.015288 -0.004020 0.004725 0.003065 -0.004765 0.009181 -0.014400 -0.004410 -0.004099 -0.005176 0.009596 -0.014784 0.008682 0.004180 0.008843 0.011494 0.000864 0.002580 -0.014219 -0.003214 0.010044 -0.005582 0.013165 -0.003731 -0.012118 -0.008098 0.015311 0.010431 -0.012398 0.015052 -0.013153 
No -0.014927 0.007738 -0.002051 -0.007284 -0.001192 -0.007863 0.007487 0.011921 0.013062 -0.013789 -0.006625 0.000029 -0.002928 0.011932 0.006881 0.014168 -0.009609 0.005334 0.013337 -0.005720 0.009130 0.004016 -0.014112 0.013119 0.014717 -0.009112 -0.000758 -0.004999 0.007639 -0.012078 0.010917 -0.002944 
failed -0.003803 -0.006346 -0.013755 -0.009527 -0.003496 0.014431 -0.007878 -0.014492 0.001236 0.001913 0.009503 0.000227 0.010881 0.009323 -0.004090 -0.001991 0.002491 0.003946 0.010423 0.012545 -0.007822 -0.007870 -0.005063 -0.008411 0.003868 -0.011965 -0.007091 -0.015543 0.006800 0.013633 -0.006890 -0.014221 
KERNEL 0.009274 0.004961 -0.007880 -0.002004 -0.003847 -0.000386 -0.005666 0.000111 -0.008636 0.011755 0.011960 0.010191 -0.004606 0.000854 0.002517 -0.008384 -0.014706 -0.003302 -0.006164 0.009326 0.008429 0.005634 -0.009686 0.011075 -0.005028 0.010572 0.004155 0.014929 0.007914 0.002235 -0.007119 0.015519 
p -0.006947 0.010408 0.015573 0.015284 -0.002245 0.010189 0.014125 -0.006771 0.014694 -0.015513 0.000745 -0.001329 0.013109 -0.013474 -0.004548 -0.005012 0.001301 0.014841 -0.005172 -0.015378 -0.004618 0.013278 0.003268 0.009076 -0.011971 -0.004000 0.001729 -0.007333 0.010981 -0.015023 0.010230 -0.007476 
gb2 0.010036 0.009996 -0.005897 0.011088 0.001310 0.014904 -0.011006 -0.003887 0.008728 0.013860 0.007108 -0.003084 0.001528 -0.002411 0.005965 0.008126 -0.011990 -0.004126 0.013398 0.000933 0.015539 0.015064 0.002551 -0.014408 0.014290 0.006818 -0.014369 0.011420 -0.015249 -0.006890 0.013907 0.010544 
has -0.002277 0.003725 -0.009788 -0.014593 0.006819 0.013759 0.012691 0.008763 0.004715 0.006124 -0.000201 0.004927 -0.008101 0.002792 0.002807 -0.000221 0.007923 0.002298 -0.012954 -0.004240 0.006399 0.010990 -0.011838 0.003125 0.011253 0.011777 -0.012889 0.008688 -0.008276 -0.004616 0.003913 0.007081 
been -0.012638 -0.008406 0.003900 0.000742 0.014280 0.006755 -0.008534 -0.000072 0.002655 -0.007472 0.010068 -0.008546 0.015474 0.002136 -0.014024 0.001198 -0.001461 0.002862 0.009522 0.000353 -0.000788 0.001056 -0.008649 -0.000827 0.010170 0.010877 0.006169 -0.015527 0.000650 -0.008202 0.011497 0.013382 
MMCS 0.010204 0.004854 0.003915 -0.005407 -0.007555 -0.006108 -0.012181 0.000859 0.002548 0.004323 0.006665 -0.012254 0.009752 -0.004380 -0.013276 0.012383 -0.008892 -0.002432 -0.012923 0.014712 -0.006021 -0.014737 0.012118 0.004986 0.011040 0.004117 0.011556 0.001273 0.011530 0.013603 0.005408 -0.001800 
chdir 0.003750 0.012254 -0.009742 -0.001791 0.003813 0.006420 0.001750 0.011555 0.004395 0.010259 -0.010409 -0.006196 0.005983 0.014495 0.005050 0.002083 -0.014370 -0.013587 0.013459 0.007586 -0.009302 -0.005139 -0.012036 -0.010684 0.013863 -0.008502 0.003270 -0.003412 -0.006887 -0.001702 -0.014352 -0.007217 
LOGIN -0.000751 0.013795 -0.005820 0.011591 -0.014116 0.013088 0.002009 0.000767 0.008194 0.010335 -0.009906 0.009627 0.004168 -0.003739 0.009704 0.001549 0.013355 0.000650 -0.005080 0.010226 -0.010630 -0.001400 0.012637 0.014660 -0.012611 0.004270 0.012563 0.001669 0.007898 0.008384 0.014716 -0.002868 
on -0.003300 0.009477 -0.015571 0.003489 0.001158 0.013896 -0.011403 -0.000255 0.013947 0.004552 0.008176 0.003966 0.004305 0.003417 0.000686 0.010781 0.011784 0.009027 -0.006042 -0.008619 -0.010004 -0.003521 -0.007611 -0.012729 -0.005882 0.011182 0.008183 -0.014734 -0.006613 0.012611 -0.001138 0.011246 
program -0.003895 -0.000700 -0.007743 0.005152 -0.012865 0.008846 -0.007237 0.008488 -0.009598 -0.007090 0.012586 0.008070 0.006395 0.004714 0.009246 -0.001472 0.012165 0.011545 0.010575 0.013552 -0.007425 -0.011502 -0.010282 0.000897 0.002800 0.012235 -0.009868 0.009879 0.012079 0.010978 0.000587 0.003876 
missing -0.002537 0.014513 -0.013587 -0.014669 0.006315 -0.002064 0.014506 -0.004253 0.000061 0.006658 0.003324 -0.009309 0.010439 0.000152 0.004134 -0.003959 0.014500 0.008203 0.013520 0.014239 -0.002893 0.005908 0.004626 -0.006961 0.013435 0.007429 -0.010341 0.013007 0.001474 0.003486 -0.011361 0.006272 
loading 0.000774 -0.007384 -0.001853 0.006526 -0.003801 0.012416 -0.008672 -0.007228 0.011673 0.014547 0.011640 0.014327 -0.014814 -0.010270 -0.014649 0.003319 -0.012463 -0.000998 0.002793 -0.006559 0.003592 -0.013791 0.005862 -0.005054 -0.005226 -0.003237 0.006764 -0.005350 -0.007177 -0.009865 -0.005731 -0.012817 
invalid 0.006039 -0.003890 -0.003791 0.006236 -0.011965 -0.010212 -0.014272 -0.000438 -0.006012 -0.014674 0.006284 -0.014772 -0.006865 0.004699 0.015395 -0.010887 -0.006222 0.015192 0.009645 0.013659 0.012030 -0.008099 -0.006574 0.006619 0.009315 0.011487 0.010198 -0.013940 -0.013876 0.002174 -0.013772 0.009110 
image 0.013256 -0.006255 0.011849 -0.015539 0.013075 -0.007451 -0.002294 -0.015132 0.009506 0.012746 -0.012744 -0.002855 0.003038 0.013809 0.000518 -0.015327 0.001972 -0.005728 0.002824 0.012393 -0.008829 -0.008267 -0.001431 -0.003192 -0.005440 -0.010897 -0.000041 -0.012765 0.012629 0.008354 -0.004235 0.009552 
Error -0.008823 -0.014479 0.013818 0.003703 0.008818 -0.010548 -0.003987 0.011189 -0.004272 0.003057 -0.014194 -0.012422 0.014894 -0.014191 0.003219 -0.010002 0.012119 -0.001257 0.013581 -0.010358 0.003515 -0.014294 -0.009961 -0.003238 0.013008 -0.007891 0.007298 -0.001825 0.009836 0.008674 -0.008370 -0.011489 
started 0.002300 0.002687 0.002114 0.001460 0.006514 0.011745 0.011897 -0.015224 0.015152 -0.012492 0.001935 -0.012224 -0.002546 0.014450 -0.007752 0.005089 -0.007030 -0.002646 0.010667 0.007906 -0.013437 0.005069 -0.000913 0.006482 0.002159 -0.010745 0.000966 -0.012369 0.008997 0.003135 0.005073 0.008484 
properties 0.015377 0.013994 0.007989 0.008982 0.006163 -0.003071 0.014110 -0.000621 0.005280 -0.002650 0.004392 -0.002260 0.013216 0.005981 -0.001145 -0.001304 0.007023 -0.009894 -0.005919 0.004687 0.002813 -0.012677 -0.005536 -0.005283 -0.006737 0.011793 0.012212 -0.013147 0.010111 -0.008263 0.004844 0.006974 
bit -0.000843 -0.011809 0.000192 -0.004980 0.007765 0.007503 0.002650 -0.007503 -0.002640 0.001333 -0.006824 -0.013780 -0.000319 -0.008347 -0.008210 0.002068 -0.008221 0.008249 -0.004928 0.011233 -0.010233 -0.005032 0.007419 -0.007282 -0.013680 -0.002779 0.009786 -0.004159 0.013178 0.005729 -0.009057 0.015229 
sparing -0.015110 -0.012221 0.009973 -0.009176 0.011320 0.012218 0.008769 -0.004619 -0.008606 -0.000544 -0.000461 -0.015535 -0.011900 0.002716 0.002303 0.015206 0.009739 -0.010718 0.013642 -0.003706 0.009924 -0.003247 0.006701 0.000485 0.012581 0.008039 -0.006312 0.014594 -0.013052 0.013862 -0.005380 0.001999 
performing 0.003826 0.012758 0.006082 -0.003606 -0.014421 0.011074 0.001216 0.008030 -0.012619 -0.008280 -0.007770 -0.007524 0.009722 0.007919 -0.000855 0.006859 -0.001598 -0.004294 -0.012710 -0.008878 0.000784 -0.007321 -0.007688 -0.013233 0.009544 0.012998 -0.004832 0.011862 -0.006079 -0.015114 -0.015374 -0.001464 
MidplaneSwitchController -0.006535 0.000627 -0.011481 0.011729 -0.006960 0.004070 0.011241 -0.000804 -0.014679 0.009374 0.002500 0.010252 0.002047 0.007263 0.013564 0.008278 -0.010983 -0.003729 0.009767 -0.004285 -0.006403 0.013996 -0.004498 0.014065 0.008461 0.012098 0.014226 -0.012353 0.002848 0.012550 -0.007791 0.004838 
M1 -0.014942 0.013887 -0.011466 0.005579 0.002455 -0.008793 0.007594 0.000126 -0.014786 -0.010081 -0.000903 0.006545 -0.003675 0.000747 0.014312 -0.011787 0.012836 -0.009024 -0.012679 0.010073 -0.011637 -0.001797 -0.014981 -0.011371 0.009331 0.005338 -0.011638 0.004447 0.013727 0.003105 -0.013879 -0.010345 
LINKCARD 0.009853 -0.009963 0.006127 0.009196 0.013823 0.003734 -0.009725 0.010823 -0.012939 -0.004145 0.013272 0.012602 -0.007444 -0.011628 0.001388 0.009163 0.007359 0.011072 0.013703 0.002947 -0.014917 0.007801 -0.007886 0.004208 0.012154 -0.007281 0.011327 -0.000238 -0.004690 -0.012200 -0.002389 0.015488 
streitz 0.005352 -0.008421 0.010049 -0.008672 -0.004107 0.010402 -0.009465 0.000035 -0.009140 -0.004069 0.013776 -0.002824 -0.009260 0.001388 0.006042 0.008629 0.003834 -0.005942 -0.004836 0.005587 0.015005 0.011539 -0.014462 -0.001697 -0.014320 0.005491 -0.010631 0.004843 0.010096 -0.002114 -0.004571 -0.011413 
src 0.002804 -0.012740 0.000299 0.014475 0.011168 0.011211 0.008372 -0.000988 -0.003387 -0.009852 0.000607 -0.008485 -0.009123 0.008544 -0.002976 -0.013389 0.002262 0.002435 -0.005797 -0.013258 -0.015619 0.009418 -0.003461 0.002163 -0.007591 0.012403 -0.015010 -0.011560 -0.004416 0.002113 0.010825 0.002701 
home 0.002209 0.008333 0.008126 -0.015111 -0.002855 0.006160 0.012538 0.007756 0.004318 0.009756 0.005017 -0.004381 -0.007032 0.009841 0.005584 0.005608 0.002644 0.004953 0.010819 0.008914 -0.013041 0.001438 -0.006131 -0.015460 0.001091 0.013456 -0.001811 0.013052 0.014277 0.000480 0.012549 -0.004669 
ddcMDbglV 0.003567 -0.007704 0.002282 -0.003683 -0.014925 -0.004750 0.003032 -0.004985 0.013977 -0.007746 -0.004245 0.009490 -0.002989 0.005279 0.000472 0.003121 0.004978 0.001611 0.013764 0.009600 -0.008509 -0.012402 0.008777 0.007931 0.011726 0.008649 -0.002284 -0.015069 0.003672 -0.007012 0.000602 -0.002273 
ddcMD1 0.006878 0.001649 0.014016 -0.013738 0.006208 0.009731 0.011104 -0.007961 -0.005661 0.000143 0.004071 0.001875 0.003008 -0.005143 0.012938 0.010399 0.009266 -0.007590 0.003037 -0.011198 -0.002024 -0.000851 0.010013 0.009839 -0.006935 -0.002017 0.014821 -0.002176 -0.004980 0.010887 0.006232 0.009888 
bin 0.012142 0.005144 0.012078 -0.014028 -0.001955 -0.012898 0.005504 -0.001171 0.007904 0.002172 -0.001285 0.004027 0.010958 0.009826 0.011733 -0.003807 0.015507 0.008600 0.009889 0.009020 0.006414 0.004840 -0.002423 -0.009738 0.007607 0.012708 -0.012996 -0.010767 -0.011679 -0.008324 -0.001809 0.000565 
stella -0.011890 0.002779 -0.003531 -0.004552 -0.008165 -0.010136 -0.013768 0.015385 -0.007828 -0.001658 0.010938 -0.015306 -0.010389 -0.012314 -0.003144 -0.008247 -0.007549 -0.012320 0.003068 0.007754 -0.014444 0.004673 0.002719 0.011700 -0.007149 -0.009676 0.008016 -0.009592 0.014826 -0.002144 0.007728 0.001008 
raptor -0.002720 -0.005446 -0.001563 0.014689 -0.012423 -0.013234 -0.015462 0.010457 0.009644 -0.011347 0.009488 0.006377 0.001467 -0.009064 -0.000443 -0.002922 0.002598 -0.007849 0.013825 -0.014997 -0.002100 -0.001355 -0.005811 0.011654 0.011299 -0.006670 0.015355 0.001349 0.012033 -0.001824 0.003592 0.011216 
RAPTOR 0.008404 0.011720 -0.013267 0.012446 -0.014727 0.009059 0.000422 0.015294 -0.002182 0.004354 -0.005633 0.006575 0.015276 -0.011673 -0.011415 0.012169 0.014698 -0.009238 0.010911 0.003268 0.012197 -0.013241 0.003238 -0.009876 0.000450 -0.009524 0.009023 -0.009195 0.011194 -0.007363 -0.014215 -0.000061 
mmcs_db_server -0.009769 -0.008223 -0.007392 -0.011281 -0.015078 -0.005757 0.002635 -0.001354 -0.012054 0.014196 -0.003177 -0.014711 -0.000212 0.011108 -0.004807 0.005776 -0.002499 0.014764 -0.005675 0.000048 -0.002802 0.000263 -0.001386 0.009610 -0.008446 0.013013 -0.010982 -0.009973 0.012308 0.012489 -0.014443 -0.001571 
BGL 0.005260 -0.002776 -0.015189 0.006007 -0.013475 0.004817 -0.008824 -0.008235 0.011276 -0.013072 -0.014392 0.005019 -0.013746 -0.003220 -0.011872 0.009148 0.013508 0.001657 -0.004683 0.006594 0.015402 0.007907 0.011569 0.007611 -0.015388 -0.001559 -0.013408 -0.000986 0.015375 -0.004769 0.002906 0.006684 
useDatabase -0.009007 -0.003188 -0.005408 0.001811 -0.009920 0.009532 -0.002706 -0.005352 0.005310 -0.014948 -0.008029 0.003264 0.005922 0.007843 -0.001359 -0.008964 0.000217 0.013940 0.013886 -0.008344 0.004309 0.009693 0.010852 0.015378 0.010872 0.009260 0.001744 -0.013483 -0.010855 0.003364 0.006583 -0.006546 
serverdb 0.009930 -0.009459 -0.009299 0.007380 -0.004412 0.008388 -0.010259 0.007298 0.001297 0.008565 -0.015338 0.011275 -0.003706 0.013046 -0.004518 0.013939 -0.011120 -0.010886 -0.012465 -0.013517 -0.004831 0.005619 -0.003537 0.001660 0.007835 0.014219 0.003224 0.015036 -0.003881 0.005638 -0.003411 -0.010009 
reconnect -0.000431 0.009660 0.004388 -0.008535 0.003050 0.001384 -0.000234 -0.001537 -0.000763 -0.005030 -0.005069 -0.002199 -0.011381 0.012390 0.009902 0.015358 0.010746 -0.010321 0.010011 -0.008924 -0.012018 -0.004315 -0.000348 -0.002292 0.006752 0.013319 -0.008967 -0.009180 0.005045 0.002052 0.004172 -0.003707 
logs -0.008839 -0.008330 0.004403 -0.014684 0.012465 -0.011479 -0.003881 -0.000606 -0.000870 0.006765 -0.008471 -0.005907 0.014147 0.005874 0.010650 -0.004707 0.003315 -0.015616 -0.012435 0.005435 0.013998 0.011142 -0.010831 0.003521 0.007622 0.006559 -0.003581 0.007620 -0.015326 -0.007393 -0.001916 0.012360 
iolog -0.015293 -0.000929 -0.009254 -0.011068 -0.007418 0.001049 0.010051 0.010090 0.000977 0.012701 0.005704 0.000151 0.010378 -0.006501 -0.002275 -0.015007 -0.002163 0.004480 0.013947 -0.001691 0.010717 -0.010510 -0.003736 -0.012149 0.010445 -0.006060 -0.011867 0.002936 -0.002493 0.008552 0.009574 0.006943 
dbproperties 0.011456 0.000612 -0.005332 0.002314 0.005903 0.007717 0.010310 -0.000698 0.004776 0.012777 0.006207 -0.015275 0.008562 0.006515 0.002379 -0.015541 -0.005688 -0.012534 -0.004592 0.000948 0.009390 -0.006772 -0.010312 0.013196 0.015221 0.006711 -0.002574 0.008017 0.012293 -0.012612 0.007392 0.011292 
blocks 0.008907 -0.003706 -0.015082 -0.005788 -0.010073 0.008525 -0.003102 -0.001720 0.010529 0.006994 -0.006961 0.010314 0.008699 0.013671 -0.006639 -0.006309 -0.007259 -0.004157 -0.005553 0.013354 0.010015 -0.008893 0.000690 -0.014194 -0.009300 0.013624 -0.006953 -0.008386 -0.002218 -0.008385 -0.008462 -0.005844 
bgl 0.008312 -0.013884 -0.007255 -0.004125 0.007154 0.003475 0.001063 0.007023 -0.013016 -0.004649 -0.002551 0.014418 0.010790 0.014968 0.001922 0.012688 -0.006878 -0.001639 0.011064 0.004275 0.012594 0.014377 -0.001981 -0.000568 -0.000618 0.014677 0.006246 -0.015024 -0.014776 -0.010018 -0.006738 -0.013214 
all 0.009670 0.001329 -0.013099 0.007304 -0.004915 -0.007435 -0.008443 -0.005718 -0.003357 0.009099 -0.011813 -0.002962 0.014833 0.010406 -0.003190 0.010201 -0.004543 -0.004981 0.014009 0.004961 -0.014124 0.000537 0.012927 -0.008426 0.010017 0.009870 0.005773 -0.011896 0.005869 0.013740 0.012565 -0.010818 
BlueLight 0.012981 0.010683 -0.001365 -0.002752 -0.015032 0.007045 -0.000371 -0.008693 0.008255 -0.014262 -0.003497 -0.010576 -0.010420 -0.000016 0.009276 -0.013771 -0.000256 -0.014182 0.003282 0.015414 -0.007639 0.012088 0.014163 -0.006519 -0.008644 -0.000796 -0.008372 0.000998 -0.002783 0.000389 -0.013055 0.001343 
draeger -0.013004 0.014177 -0.003303 -0.003042 0.008055 -0.015584 -0.005971 -0.001903 -0.009430 -0.012232 -0.008853 -0.008424 -0.002470 0.014953 0.008071 0.003273 0.005985 0.002008 0.010133 0.004382 0.000799 -0.013470 0.001727 0.005154 0.005898 0.013929 -0.004939 -0.007593 -0.009481 0.012428 0.010154 -0.007980 
dat32k_060205 -0.005787 0.011812 0.012338 0.006434 0.001844 -0.012822 0.006007 0.014653 0.006088 0.015188 0.003369 0.003493 0.007433 -0.007187 -0.006806 -0.001167 0.014179 0.012338 0.003312 0.003115 0.011190 -0.013638 0.006869 -0.004657 -0.008858 -0.008456 -0.015178 -0.006418 -0.014227 -0.012642 -0.011559 -0.007537 
benchmark 0.003384 0.003587 0.014306 -0.005575 -0.002413 0.015331 0.004313 0.009724 -0.007690 0.005498 0.001920 -0.006074 -0.011961 -0.003937 -0.004106 0.004158 -0.006924 -0.014441 0.014070 0.011614 -0.007715 0.011585 -0.001660 -0.004703 0.009590 -0.005450 -0.007838 0.004523 0.014231 -0.012322 0.015555 0.002671 
parameters 0.014507 -0.010497 0.002603 -0.007818 -0.004717 0.006374 -0.011052 0.014561 0.011734 -0.010050 -0.013202 -0.005876 0.001848 -0.006546 -0.015077 -0.012001 0.005177 0.015420 0.011155 -0.001371 0.006582 -0.000302 0.007388 0.005017 -0.001259 -0.008303 -0.014171 -0.006021 0.013391 0.013389 -0.002252 -0.008605 
loguserinfo -0.003666 0.000810 0.008477 -0.000295 -0.005068 -0.008442 -0.008840 -0.002086 0.001862 -0.000208 -0.010745 0.004088 -0.013639 -0.015015 -0.008470 0.012856 -0.012020 0.008173 -0.005431 -0.004591 -0.008417 0.013202 0.002765 -0.006748 -0.010155 0.014234 -0.002925 -0.006799 0.014505 0.001991 -0.002481 -0.010116 
idoproxydb 0.011364 0.006258 0.000680 -0.014257 -0.003466 0.002132 0.010951 -0.008968 -0.006058 0.003774 0.009290 -0.007432 0.004076 0.001907 -0.015534 -0.015022 0.003986 -0.004935 -0.004439 0.001956 0.009787 -0.010403 -0.015531 -0.008747 0.014153 -0.000338 -0.005351 0.002188 -0.013678 -0.015267 0.014869 -0.001861 
enableflush -0.002903 0.005846 0.010461 0.012797 0.000090 0.006847 -0.014180 -0.006084 -0.012024 0.001897 -0.015597 -0.009187 -0.007505 0.012969 -0.005021 -0.001884 -0.009304 0.007349 0.014131 -0.012983 -0.001307 -0.008618 0.015002 -0.000980 0.009163 0.010480 0.009801 -0.010309 -0.008657 -0.007134 -0.012704 -0.015090 
Input -0.015217 -0.000426 0.006570 -0.012884 0.005598 0.005702 0.009517 0.006566 0.015213 -0.005839 0.008344 -0.001176 0.014116 -0.013077 -0.008180 -0.010231 0.010609 0.013772 -0.012221 0.013094 -0.010447 -0.012692 0.000613 -0.014698 0.006126 0.015440 0.011281 -0.013040 -0.001684 -0.004860 0.008552 0.012696 
DRV142_2005 0.005672 -0.012557 -0.010993 0.002451 0.013060 -0.001301 -0.011708 -0.002269 0.013153 0.011816 -0.012637 -0.014650 0.006441 -0.013733 0.006240 -0.008811 0.001225 0.014337 0.010255 -0.013563 0.013617 0.008625 0.003802 0.012600 0.005043 0.014539 -0.000911 -0.006006 0.007242 -0.008446 -0.015115 -0.012252 
BlueGene1 -0.002735 0.000703 -0.010978 -0.003698 -0.008776 -0.014164 -0.015355 -0.001338 0.013046 -0.007639 0.015210 0.012892 0.000719 0.011001 0.006988 0.002373 -0.006207 0.009042 -0.012191 0.000796 0.008383 -0.007168 -0.006680 -0.012836 0.005913 0.007780 0.004476 0.010794 -0.013128 0.013359 0.010047 0.003815 
$Name -0.009190 0.008104 0.006616 -0.000082 0.002592 -0.001637 -0.001424 0.009358 0.014893 -0.001704 -0.001864 -0.012300 -0.003050 -0.001374 -0.005937 -0.007926 -0.011684 -0.002112 0.014192 -0.006330 0.005102 0.002429 0.000415 0.002743 0.008736 -0.004839 -0.003810 0.006110 -0.000296 -0.001946 -0.009713 -0.001602 
$ -0.013691 0.009645 0.010537 0.013300 -0.015337 0.005031 -0.001164 -0.001430 -0.012558 -0.001627 -0.001361 0.003523 -0.004866 0.011642 -0.001283 -0.008461 -0.015209 0.012125 -0.004348 -0.003690 0.003775 0.006168 -0.006162 -0.003162 0.013512 0.007932 0.005483 0.011191 0.014490 0.008140 -0.011895 0.002747 
tmp1 0.015011 0.005327 0.000787 0.005198 -0.000063 0.005840 -0.014577 -0.002452 -0.006805 -0.007411 -0.014529 -0.002138 -0.004728 -0.012452 -0.010301 0.000771 0.014469 -0.010748 -0.005309 0.008715 0.004400 0.004047 0.004840 0.000699 -0.011009 0.014844 0.001103 -0.005212 -0.000021 0.012367 0.003501 -0.014389 
nfs 0.014416 -0.004851 0.008615 0.006861 -0.014086 0.000789 -0.010411 0.006291 0.000900 0.012197 -0.010119 0.001967 -0.002638 -0.011155 -0.001740 -0.011482 0.014851 -0.008231 0.011308 -0.000364 0.006979 -0.003933 0.002170 0.014325 -0.002327 -0.015353 0.014302 -0.011850 -0.012579 0.010734 0.005225 0.009491 
ddcMD_jng -0.015476 0.010362 0.002770 -0.012960 0.005095 -0.010121 0.011333 -0.006450 0.010559 -0.005305 0.011868 -0.015413 0.001406 0.015533 -0.006852 -0.013969 -0.014065 -0.011572 0.014253 0.000323 0.011511 0.013477 -0.014173 0.006466 0.008308 0.011091 0.013829 -0.008722 0.008066 0.003242 -0.006722 0.011887 
8M_5000Ktest -0.012165 -0.011534 0.014504 0.008235 -0.005022 0.004360 -0.011846 -0.009426 -0.009079 0.002584 -0.011065 0.008223 0.007402 0.005111 0.005614 -0.006691 -0.009777 0.010477 0.003526 0.010775 -0.013254 -0.006222 -0.012937 0.008374 -0.010353 0.000425 -0.000316 0.004172 -0.000586 -0.010109 -0.001092 -0.007202 
glosli -0.006901 -0.008040 0.012567 0.007945 -0.013186 0.012981 0.013804 -0.002635 0.004486 0.004613 0.014829 0.010375 0.015352 -0.011170 0.004409 0.010354 -0.003536 -0.004584 0.010377 -0.000257 -0.004816 -0.000531 0.005877 -0.011203 0.004189 0.015150 0.003118 -0.004419 -0.007284 0.001930 -0.009133 0.014725 
to 0.000317 -0.010405 -0.003043 -0.013830 0.011854 -0.015507 -0.005467 0.013920 -0.011246 0.000783 -0.004199 -0.008958 -0.005995 -0.002060 -0.010468 0.005913 0.004658 0.005746 0.003556 -0.001523 0.005575 -0.000699 0.011020 0.010235 -0.010567 -0.007235 -0.007121 -0.003244 -0.012030 0.008110 0.000403 0.015168 
read 0.009487 0.012620 -0.001075 0.005412 0.007597 0.012645 -0.007161 0.008992 0.006226 -0.008906 -0.005649 0.012724 0.005861 0.001190 -0.007768 0.011239 0.014805 0.010217 0.014314 0.006976 -0.013330 -0.006726 0.002490 0.010190 0.007881 -0.004229 0.000218 0.007697 -0.014822 0.008430 -0.003732 -0.005874 
stream -0.010639 -0.001463 -0.012778 0.003169 0.005293 0.003688 0.008723 0.013829 -0.005600 0.006795 0.010480 0.012923 -0.011580 -0.001420 0.012511 -0.004920 -0.004345 0.008829 0.011399 -0.006010 0.000967 0.012638 0.011539 -0.011341 -0.002968 -0.007082 -0.006114 -0.002847 0.015589 0.002891 0.009711 0.014100 
socket 0.002438 0.009843 -0.006904 0.010691 0.004942 -0.011128 0.010936 -0.002819 -0.015472 -0.014613 0.012937 -0.008363 0.004183 -0.009888 -0.012132 -0.011314 0.009708 0.001581 -0.005187 -0.009229 -0.014032 -0.005108 0.006915 0.008145 -0.011864 0.015455 0.005132 -0.003625 -0.014547 -0.008507 0.009482 0.012589 
prefix -0.013783 0.015291 -0.014701 -0.003271 0.006544 -0.000554 -0.000524 -0.009700 0.007858 -0.010630 0.001721 0.011366 -0.009352 0.007034 0.012053 -0.007942 -0.005535 -0.011527 -0.004195 -0.002683 0.004171 0.002536 -0.011380 0.006146 0.012444 0.000883 0.002706 0.005362 -0.011480 0.005485 -0.004418 -0.010406 
message 0.003201 0.014879 -0.004920 -0.007467 0.010099 0.004161 0.005595 -0.006816 0.001892 -0.012507 0.008084 0.009612 0.010317 -0.013154 -0.008683 0.005196 0.012424 0.000757 0.014375 0.013628 -0.006922 0.004322 -0.012097 0.013913 0.007454 0.011701 -0.013392 -0.007135 -0.006460 0.013618 -0.000741 0.007615 
control -0.009113 0.008607 -0.008811 -0.001897 0.015608 0.003017 -0.001958 0.005833 -0.002121 0.011007 0.000775 -0.013628 0.000689 -0.007950 -0.011842 -0.003150 0.001087 0.007181 -0.011977 0.008456 0.015188 0.000247 0.004764 0.000195 0.004417 -0.014590 -0.011912 -0.009866 0.000513 -0.015358 -0.010736 0.004151 
CioStream 0.011776 -0.003523 0.004876 0.013438 -0.008181 -0.003987 0.008067 -0.003002 -0.004181 -0.002589 0.011045 0.004149 -0.006987 -0.008606 0.002578 -0.001731 -0.008297 0.007745 0.010499 0.013049 0.008001 -0.009686 0.007953 -0.003757 0.003334 -0.015490 0.007146 -0.002832 0.009439 0.012306 -0.003152 0.010453 
L3 0.003368 0.009737 0.004891 0.007288 0.001234 0.014400 0.004420 -0.002071 -0.004288 0.009206 0.007642 0.000441 -0.012709 -0.015122 0.003325 0.009453 0.015522 0.002450 -0.011947 -0.003843 0.002768 0.005771 -0.002530 0.002057 0.004204 0.009000 0.012532 0.013968 -0.010931 0.002861 -0.009240 -0.004730 
U18 -0.003086 -0.014113 -0.008765 0.010905 0.012602 -0.004323 -0.012898 0.008626 -0.002441 0.015142 -0.009433 0.006499 0.014772 0.003753 -0.009599 -0.000846 0.010044 -0.008704 0.014436 -0.010969 -0.000513 0.015369 0.004565 -0.013614 0.007027 -0.003619 0.004247 0.009284 0.001902 -0.012444 0.002250 -0.010147 
R27 -0.007587 -0.012572 -0.004844 -0.006963 -0.005327 0.002346 -0.012639 -0.002162 0.001358 0.015218 -0.008929 -0.008928 0.012957 -0.014481 -0.004945 -0.001380 0.006519 0.005533 -0.004104 -0.008329 -0.001841 -0.012143 -0.002011 0.011731 0.011803 0.009153 0.013539 0.014365 -0.014563 -0.002358 0.000068 -0.005798 
U22 -0.010136 0.014360 -0.014594 -0.015066 0.009947 0.003154 0.005198 -0.003185 0.007111 0.009435 0.009152 -0.014589 0.013094 -0.007325 -0.013963 0.007851 0.004948 0.013910 -0.005065 0.004076 -0.001215 -0.014264 0.008990 0.015591 -0.012718 -0.015185 0.009160 -0.002038 0.002176 0.001869 0.015464 0.008317 
R33 -0.010731 0.004182 -0.006766 -0.013402 -0.004076 -0.001896 0.009364 0.005558 0.014816 -0.002207 0.013562 -0.010484 0.015184 -0.006028 -0.005403 -0.004402 0.005329 -0.014822 0.011552 -0.005002 0.001364 0.009006 0.006320 -0.002033 -0.004036 -0.014132 -0.008891 -0.008676 -0.010382 0.000236 -0.014062 0.000947 
L0 -0.009373 -0.011855 -0.012610 -0.001974 0.015104 -0.012806 -0.000142 -0.007183 -0.006775 0.011541 0.004300 0.003386 -0.012022 -0.010590 -0.010514 -0.006889 0.007664 0.013086 0.014497 -0.004316 0.005896 -0.004834 -0.010022 -0.009891 0.006599 0.012311 -0.009364 -0.005548 0.010263 -0.007256 0.005240 0.003342 
restarted -0.006062 -0.002501 -0.000876 -0.012029 0.004988 0.001674 0.007930 -0.010158 0.004837 -0.011820 0.012616 -0.004228 -0.006025 0.010238 0.001952 0.000390 0.011951 0.003885 0.003770 0.006136 0.012381 0.006717 -0.008786 -0.007984 -0.012062 0.001646 0.007741 0.007346 0.001612 0.010643 0.010871 0.015503 
ciodb -0.000797 0.000993 -0.002814 -0.012319 -0.003176 0.010295 0.002330 -0.003368 -0.012848 -0.009791 0.007260 -0.002077 0.001925 -0.006043 0.000747 -0.013816 -0.013058 -0.011176 0.010621 -0.004896 -0.010431 0.012409 0.010028 0.003689 0.002480 -0.014880 0.011174 -0.001245 -0.005087 -0.008568 0.002830 0.006180 
core 0.006420 -0.001372 0.012826 -0.002843 -0.009386 0.013057 0.014308 0.013188 0.002670 -0.013621 -0.011767 0.009840 0.011827 0.003067 -0.014131 0.012993 -0.004864 -0.000845 0.003800 -0.006162 -0.000040 0.012241 0.015170 -0.006122 -0.012276 -0.006014 0.000936 -0.000070 -0.009832 -0.002388 0.012366 0.006623 
register 0.015591 -0.009596 0.014794 -0.014852 -0.013643 0.009960 0.012614 0.008259 -0.011108 0.007940 -0.013217 0.000273 -0.007566 0.006317 -0.011430 -0.012931 0.005283 0.003625 0.014558 0.002337 0.012304 0.006214 0.006640 -0.006168 0.006172 -0.003008 0.008275 0.010870 -0.012625 -0.002068 0.008231 -0.014419 
configuration -0.004536 0.007570 0.003091 0.014155 0.015303 0.001003 -0.002751 0.013096 0.008316 -0.007609 0.002912 0.000472 0.006243 0.003707 0.008849 0.002160 -0.013866 0.002237 0.011643 -0.010648 -0.004648 -0.005673 -0.015561 0.003552 -0.004677 -0.005862 0.001943 0.000327 -0.013464 -0.007607 -0.009576 0.005555 
error 0.008541 -0.012373 0.008965 -0.009573 0.014952 -0.013813 -0.000539 -0.003551 -0.001556 0.002233 0.005368 0.010436 -0.009245 -0.004761 0.015456 -0.004234 0.000187 -0.005011 -0.004943 -0.013868 0.011602 0.007831 0.011065 -0.008213 -0.013573 -0.014575 0.013188 -0.000452 -0.012350 0.012245 -0.009805 0.004044 
