10 32
1 -0.0003957585401527969 -0.00023637937205233452 0.0024321378717512086 -0.0016153448357664306 0.0010898964848883193 0.002457103422032027 0.0016748275628397722 -0.0012258620973343254 0.0010739655337037503 -0.0017432069324623343 3.0275907443739987e-05 -0.0032431378801667395 -0.001033172405782509 0.000514655185317428 0.0002769655638358331 0.0009703793029043952 -0.00231813782713665 0.00022272409766848231 0.003306758590042591 -0.0001522758493906465 -0.0006766896674826998 -0.000581793083632686 -0.0015714482779630684 0.00040972410000716177 0.004110069054275237 0.001485551651246075 0.0021594483362699472 -0.0008287931358891314 0.001754896598868072 -0.0006973793316664623 3.6137959325750325e-05 0.001536896568723023
2 -0.00036106890183873475 -0.00022268971299816822 0.0023069309932781897 -0.0007176896685670162 0.0003332758065441559 0.0013426896054217399 0.00143172414215675 -0.0013216207185780212 0.0008729655366613738 -0.0015611724470388786 -6.127581983836817e-05 -0.0029853102937365825 -0.0004091034251955691 0.0011850000029943626 0.0006063448692720126 0.0007735862163826823 -0.0027548619586139403 0.0005731723845358296 0.004326517211979833 0.0005433448461879944 -0.0008271724318860676 -0.0002818965264756618 -0.0017471724051323816 0.00011189651007137807 0.004515241470252131 0.0020043792620558164 0.0021352413999105417 -0.001850586240019264 0.0019074827954494234 -0.0007678965560224807 -0.0006447241155848164 0.0011380689844874472
3 -0.002147071427316405 -0.0007728928799874016 -0.0019711786408151966 -0.0027371071669871788 -0.0008722499894377377 0.0016147142689858032 0.0006181428681364716 0.0011829643083599098 0.00022403573620977113 -0.0009718571569205128 -0.0010518928232029015 -0.001580142809026646 -0.0006025357501390058 0.0022790714075589286 -0.0003545714051662279 0.00034314282778983137 -0.00286317848804174 -0.00014192855243371532 0.0015241070816825544 -0.0006498571482162723 0.0006264643078403813 0.0025771428803896663 -0.002181892908993177 0.0023460357130846076 0.00365832146365262 0.0033910713640839924 -0.00038160708312976306 -0.0005045000538562558 0.00225642863577897 -0.001397178601889339 0.001274785737872922 -6.32499494323773e-05
4 -0.0005013570740369947 4.44999397067087e-05 0.002307821388967568 -0.0006117857244264867 0.0008782142374132361 0.0015602856573033413 0.001374571431629842 -0.001190785743996717 0.00040496432159540873 -0.0013402857543301902 8.81428994554361e-05 -0.00343085709294298 -0.0003169642638697821 0.0010387857203438347 0.0006111428998078086 0.0006897500092496297 -0.0030310356066495714 0.0005361071110071082 0.003989464270749262 0.00021989286012415375 -0.0005528214533114806 0.00015096430849683071 -0.002123035705673309 -0.00016735717248853428 0.004257714367538158 0.0017670713797477739 0.0022930714473789393 -0.0013785000192001462 0.0018444643231175309 -0.0005448928672454453 -0.0006892499763385526 0.0012598928795861347
5 -0.0005372856280051305 3.0321364257750766e-05 0.0024374999416717663 -0.0015415000047401658 0.0016618570828411197 0.0027144999673639958 0.001626357117337258 -0.001091607171994318 0.0006131428899607272 -0.0015288214713759121 0.00018296433128333383 -0.0036978928074599287 -0.000963321422334827 0.0003445000163212951 0.0002700000477489084 0.0008935714202899751 -0.002578714184762378 0.00017314281389449855 0.0029332856980285476 -0.0005005714317251529 -0.0003969643044651353 -0.0001596428399872301 -0.0019410357168193773 0.0001411071170878131 0.0038380715081335177 0.0012297142114091133 0.002318142917179752 -0.0003202143042082233 0.0016864286195154168 -0.0004718571705909978 1.5928601247391532e-05 0.001672964306115838
6 -0.002299879969796166 0.0015755999367684126 -0.0012212400423595683 -0.0005552000156603754 -0.00028384001925587656 0.0023815599584486335 0.0015986400810652412 0.0013061200243828352 -0.0014989599633554462 -0.002138319981750101 0.0020174399769166485 -0.00042991994247131514 -0.0029570800298824905 -1.1560064740478992e-05 0.00255476001650095 0.0001154800015501678 0.001142840040847659 0.00229731994215399 0.0022921599447727203 0.00038387997075915335 -0.00433628007536754 0.0036355999996885656 -0.003125199960777536 0.0006289999355794862 0.0020315600419417022 0.0031635199580341577 -0.0002405999170150608 0.001417279916931875 0.004484640031587332 0.0003537999698892236 0.002215519982855767 -0.00012215996626764537
7 -0.0023032173491589238 0.001923434694459581 -0.0012950435231449892 0.0004252608607361174 -0.0005844348292473866 0.0026699564680355884 0.0006434348093614022 0.000990782613687612 -0.0003846956003500331 -0.002534347786264413 0.0027079564884922506 0.0010295217702862472 -0.00257482607950173 -0.001227869596534773 0.003179000017395162 0.0006051304542621517 0.0011463044008806996 0.0024074346748302164 0.0027142608254823995 -0.000558173946995774 -0.0016408696158222206 0.003849260898752381 -0.003801913006970173 0.0009997391082478039 0.0034786957093393025 0.0023123043002155814 -8.682594204361996e-05 0.0029650869021323792 0.003406260899045383 -0.0006112174318253022 0.0012704347963849812 0.0013253913291365557
8 -0.0024883477865090676 0.0017887390441382709 -0.0013686522225211577 0.0015696956315482764 -0.0011835217820075543 0.002248695579549784 0.0005803913572099586 0.0005748260754562975 -0.001227912974054166 -0.0023930434355228817 0.0028253912687828038 0.0012610435007999236 -0.002133608669164064 -0.0010334782899640825 0.003646695667513363 0.000974652200491856 0.0003243044383175995 0.0021453911954860973 0.0037021303913839483 -0.0005601304532636119 -0.0021974783183237455 0.003979956554046467 -0.0034827825514619926 0.0014753912900746598 0.0033573044119807687 0.0023262608573650537 0.0010920870788496636 0.002050260803788779 0.0038899130608036144 0.0001351304084022084 0.0007615652233969582 0.0012278695864117017
9 -0.001879909058598886 0.002654409004290673 -0.001794000061636325 0.0012327726872172207 -0.0015174091200936925 0.003910954484705475 0.002806318224346879 0.0006291817857841538 -0.0001032726724423066 -0.000960909060350704 0.0013337272896685383 5.909842829251747e-07 -0.0014109090975993736 6.813633742488243e-05 0.0024440000204115427 0.0010782727728259158 1.9818269224329427e-05 0.002692590832752599 0.00413949997164309 -0.000798590899318118 -0.002425272777062756 0.0033166363877667623 -0.0019689999713922257 0.0003621363410440443 0.0023956364417575637 0.0033164090709760785 0.0005866818577156995 0.0013205453975718808 0.003607136406406591 0.000516863608605821 0.0019964545473075386 0.0009666363952088763
10 -0.0016863636013691905 0.0027952271841720426 -0.0017170455122885126 3.631815409541807e-05 -0.0008910909422080625 0.00435136359539518 0.0028722272879597517 0.0010640454393896189 0.0007782727637029232 -0.0011086363361259414 0.001210954564819324 -0.0002414544612541001 -0.0018721818447705698 -0.0001350909376262941 0.0019550454771061513 0.0006919545835857703 0.0008791818664493886 0.0029665453793396327 0.003106727243655107 -0.0007965454609471966 -0.0018433636789929799 0.003180000020868399 -0.0023026363566962323 -0.00013513639450221407 0.002522545525359667 0.0033018181248652663 -0.0006458181186727333 0.0022769545003856447 0.003101500055477531 -0.0002634091334502128 0.002528454555431381 0.0010685909444212236
